{"type":"NeuralNetwork","sizes":[9,20,20,20,17],"layers":[{"weights":[],"biases":[]},{"weights":[[-0.1014508530497551,0.08310069143772125,-0.06583055853843689,0.1672435998916626,-0.11188287287950516,0.19678716361522675,-0.08610861748456955,0.05596666410565376,-0.15679822862148285],[0.1142914667725563,-0.15161575376987457,-0.13578814268112183,0.047445300966501236,-0.12256164848804474,-0.02491791546344757,-0.11820883303880692,0.06814830750226974,-0.023975756019353867],[-0.07722168415784836,0.03120749071240425,0.16687551140785217,-0.0583261176943779,-0.0436251237988472,0.01463430654257536,-0.10008853673934937,-0.009938529692590237,0.1504662036895752],[0.056946948170661926,-0.010490236803889275,0.11902907490730286,0.09168604016304016,-0.09507707506418228,-0.10760235786437988,0.06501888483762741,-0.020813487470149994,-0.01393179316073656],[0.09707260876893997,0.018249941989779472,-0.07722968608140945,0.005298341624438763,-0.12581267952919006,-0.006852218881249428,0.022884022444486618,0.005430527497082949,-0.07775725424289703],[-0.1928623467683792,-0.10492611676454544,-0.014985279180109501,-0.17336516082286835,0.07963923364877701,-0.08786369860172272,-0.1929527223110199,0.16632075607776642,0.09235154837369919],[0.0876065343618393,-0.029434964060783386,-0.12239395081996918,0.19155733287334442,0.1390695571899414,0.017325758934020996,0.19402740895748138,-0.1836208999156952,-0.09083709120750427],[0.0578034408390522,-0.10264910757541656,0.19140028953552246,0.13534151017665863,0.17485253512859344,-0.17880003154277802,0.16901880502700806,-0.023411212489008904,-0.031352411955595016],[-0.11590392142534256,0.18860024213790894,-0.06769798696041107,0.09306492656469345,0.1769867092370987,0.06161275506019592,-0.02145332284271717,0.19129052758216858,-0.04410692676901817],[0.18448933959007263,-0.18083375692367554,-0.18036450445652008,0.17644552886486053,0.18111464381217957,0.008065535686910152,-0.02404310554265976,0.11871154606342316,-0.03708987683057785],[0.0592045821249485,-0.08411912620067596,-0.04255151376128197,0.09073913842439651,0.04364659637212753,-0.11028540134429932,-0.057647570967674255,-0.1738772690296173,-0.10246693342924118],[-0.13782815635204315,0.009818356484174728,-0.027307188138365746,0.11905723065137863,0.030448555946350098,0.18679384887218475,-0.05847131833434105,0.11096564680337906,0.17173229157924652],[0.18270111083984375,-0.00840817205607891,0.15403513610363007,-0.1724514216184616,0.020664174109697342,0.15446627140045166,-0.09547062963247299,0.029986392706632614,0.02396969497203827],[-0.05900751054286957,-0.010095961391925812,0.14920452237129211,0.18288102746009827,0.13115283846855164,0.07680138200521469,-0.08783498406410217,0.05420578643679619,-0.106735959649086],[-0.05123581364750862,-0.15142075717449188,-0.16850878298282623,-0.056657083332538605,-0.008957073092460632,0.10883011668920517,0.10864593088626862,-0.1695483922958374,-0.06751647591590881],[0.12635676562786102,0.12854617834091187,0.15168799459934235,0.059593405574560165,-0.18808400630950928,0.08866319805383682,-0.11695148050785065,0.10836128890514374,-0.041970446705818176],[0.17805448174476624,-0.12879346311092377,-0.1865473985671997,0.13899406790733337,0.001343758194707334,-0.08778185397386551,0.06405795365571976,-0.1847275346517563,-0.12809991836547852],[-0.11051172763109207,0.10342425107955933,0.0644112303853035,0.048338744789361954,0.04905286803841591,0.10163841396570206,0.13991643488407135,-0.05857572332024574,-0.06491762399673462],[-0.04685189947485924,-0.18835507333278656,0.031138885766267776,-0.09653214365243912,0.007186864968389273,-0.08090196549892426,0.1678961217403412,-0.16735272109508514,0.016642356291413307],[-0.055645063519477844,0.09683892875909805,-0.09141462296247482,0.03645763173699379,-0.11282515525817871,0.044631849974393845,0.13809223473072052,-0.046621572226285934,0.06719286739826202]],"biases":[-0.02675655111670494,-0.1101800724864006,0.07208682596683502,0.12290459871292114,-0.14848700165748596,-0.178642138838768,0.025485878810286522,-0.12743182480335236,0.16611652076244354,0.11150551587343216,0.06738795340061188,-0.175568088889122,0.08423053473234177,0.17961150407791138,0.12850119173526764,-0.14530423283576965,0.21014007925987244,-0.15063747763633728,-0.08621760457754135,-0.004484290722757578]},{"weights":[[-0.0328398272395134,0.13804909586906433,-0.15270529687404633,-0.007514630444347858,0.18500342965126038,0.0993286743760109,0.16438527405261993,0.08636286854743958,-0.13784214854240417,-0.046588484197854996,0.05265628546476364,-0.07288426160812378,-0.06962908804416656,0.22223015129566193,0.17712262272834778,0.05496207997202873,0.0103306258097291,-0.037228941917419434,0.0476977676153183,-0.043711647391319275],[0.15767943859100342,-0.0036274318117648363,0.10520866513252258,-0.14126309752464294,-0.15792284905910492,0.03408968821167946,0.20520547032356262,-0.0277707539498806,-0.08293622732162476,0.09366673231124878,0.20385874807834625,-0.12267565727233887,0.2189815640449524,-0.09705936908721924,-0.04913436621427536,-0.13889390230178833,0.06805849820375443,-0.040774066001176834,-0.0012760251993313432,-0.037894364446401596],[-0.020954087376594543,0.04986582323908806,0.019479969516396523,0.17400778830051422,-0.04237276688218117,-0.16146522760391235,0.18915089964866638,-0.1457943171262741,0.04390774294734001,-0.16648724675178528,0.050179220736026764,-0.11687231808900833,-0.023777665570378304,0.09178818762302399,-0.09113533049821854,-0.13847759366035461,-0.04919566959142685,0.13625766336917877,-0.11950598657131195,-0.12771031260490417],[-0.14475777745246887,-0.10733050107955933,0.19441649317741394,-0.04285908862948418,0.09376785904169083,-0.06330335140228271,-0.14472028613090515,-0.1605873554944992,-0.05482954531908035,0.1732410192489624,0.012557189911603928,-0.13546623289585114,0.06208767369389534,-0.13961416482925415,0.061237070709466934,0.13304010033607483,0.008182037621736526,-0.0975584164261818,0.04402945190668106,0.16260384023189545],[-0.02912386693060398,-0.07080179452896118,0.040717314928770065,0.08108485490083694,0.04052900895476341,-0.18025429546833038,0.057779181748628616,-0.1471940577030182,-0.022577831521630287,-0.16537685692310333,-0.11539512872695923,-0.14779767394065857,0.08939165621995926,-0.11646104604005814,0.18549923598766327,-0.09223384410142899,-0.03418822959065437,0.16842345893383026,0.09414059668779373,-0.12651292979717255],[-0.13056838512420654,0.22857308387756348,0.15904466807842255,0.02194594033062458,-0.04825387895107269,-0.11539270728826523,0.2214524745941162,0.1335049271583557,0.19546374678611755,0.09756960719823837,-0.07200264930725098,-0.09435723721981049,0.2457355260848999,0.01604911871254444,0.2282738834619522,0.09866568446159363,0.1718168407678604,0.19343936443328857,0.21885733306407928,0.05202970653772354],[0.041432417929172516,-0.17344000935554504,0.0057040369138121605,0.19292573630809784,0.1427282840013504,0.15111637115478516,-0.12720468640327454,0.18572738766670227,-0.04241301864385605,-0.12629354000091553,0.21472790837287903,0.15668842196464539,-0.1626206636428833,-0.027296310290694237,-0.03358146920800209,0.08610736578702927,-0.004058011341840029,-0.08427904546260834,-0.007940680719912052,-0.022734392434358597],[0.09998125582933426,0.1702490746974945,0.030400769785046577,0.09934649616479874,0.1333809643983841,0.2085924595594406,0.053259316831827164,0.06768124550580978,-0.05153527855873108,-0.11140991747379303,-0.03588593751192093,0.1753261387348175,-0.03140196204185486,0.16481821238994598,-0.15029031038284302,0.12951146066188812,-0.03938715159893036,-0.009888091124594212,0.15440456569194794,0.021875150501728058],[-0.025538993999361992,-0.07646706700325012,0.039940159767866135,-0.09054502099752426,0.05327538773417473,0.12615419924259186,-0.03541885316371918,0.19700177013874054,0.00846882350742817,0.030808277428150177,0.15795370936393738,0.14365896582603455,0.1306408941745758,-0.15758538246154785,-0.10770521312952042,0.18600261211395264,-0.11124203354120255,-0.08211365342140198,0.07345210760831833,0.0943286195397377],[0.11183253675699234,0.08282638341188431,0.2075558751821518,-0.04518353193998337,0.181810662150383,-0.084779292345047,0.052719298750162125,-0.17516085505485535,-0.10776772350072861,0.0687960535287857,0.07096637785434723,0.0851556807756424,0.2018013745546341,-0.02456718496978283,0.037619031965732574,0.2107759416103363,0.06303823739290237,-0.15543197095394135,0.19287924468517303,-0.03783204033970833],[0.12545017898082733,-0.062457725405693054,0.07203550636768341,0.223920539021492,0.0686260238289833,0.13050290942192078,-0.09459194540977478,0.04372953251004219,-0.034094374626874924,-0.0024144125636667013,-0.09584487974643707,-0.1136421486735344,0.012893456034362316,-0.01713547483086586,0.14986905455589294,-0.05568757653236389,-0.04553418979048729,0.20347504317760468,0.08392651379108429,0.07754665613174438],[-0.03658060356974602,-0.10334479063749313,-0.06589946895837784,0.01891016587615013,0.005677603185176849,0.08617521077394485,-0.14970041811466217,0.09323378652334213,0.1968614012002945,-0.050584759563207626,0.05808732658624649,0.22017145156860352,0.20031903684139252,0.21912585198879242,0.16094595193862915,0.07752498984336853,0.18070730566978455,-0.02034584805369377,-0.15700338780879974,-0.0901699960231781],[-0.1227068156003952,0.07425720989704132,-0.15147744119167328,-0.015756001695990562,0.1694062054157257,-0.07588943839073181,0.08263758569955826,0.021513959392905235,0.1848069280385971,-0.011270622722804546,-0.0761384665966034,-0.09566474705934525,0.17500515282154083,-0.18063975870609283,0.06664368510246277,-0.0453505776822567,0.14658361673355103,-0.07291625440120697,0.17854052782058716,0.04928145930171013],[0.06897451728582382,0.20849576592445374,0.09498154371976852,0.15879781544208527,0.19415569305419922,-0.1229868084192276,-0.062440209090709686,0.1950739622116089,0.14050082862377167,0.001923472504131496,-0.09348584711551666,0.15145735442638397,0.07990778982639313,-0.03217899799346924,0.10068100690841675,0.1008065789937973,0.21133603155612946,0.0788930281996727,-0.12767161428928375,-0.11320754885673523],[0.01523489411920309,0.13795356452465057,0.18937397003173828,0.11591151356697083,-0.1382037103176117,0.09478922933340073,-0.05918893963098526,0.06946992129087448,0.0919884592294693,-0.007548921275883913,0.20531971752643585,-0.0900958850979805,0.10915319621562958,0.06922528892755508,-0.045092932879924774,-0.09869107604026794,-0.048281364142894745,0.04998041316866875,-0.08373337984085083,-0.09526436030864716],[0.008712327107787132,0.1045306995511055,-0.04750993847846985,0.17608502507209778,-0.02922896295785904,-0.09463110566139221,0.19577327370643616,0.1628933548927307,0.04681868106126785,-0.10278932750225067,-0.044205598533153534,-0.011088769882917404,0.029701897874474525,0.008859077468514442,-0.04877867549657822,-0.07666024565696716,0.1419692486524582,-0.04408211261034012,-0.05944094806909561,-0.14433802664279938],[0.1009187251329422,-0.00974896177649498,-0.10783020406961441,-0.10937660187482834,0.002859338652342558,0.08481664955615997,-0.10993441194295883,-0.0706261545419693,0.03121081180870533,-0.07753992080688477,-0.011929208412766457,-0.05508977547287941,0.16838498413562775,0.0342450812458992,0.06716557592153549,0.18172748386859894,0.03637995198369026,0.02871428243815899,-0.15039631724357605,-0.13676325976848602],[0.1640537828207016,0.14301913976669312,0.032005880028009415,0.07990819215774536,-0.12430843710899353,-0.07404929399490356,-0.06538811326026917,0.02443305216729641,-0.04627082124352455,0.14536115527153015,-0.16401754319667816,0.22376929223537445,-0.08547928929328918,0.19106093049049377,0.08897875249385834,0.18625618517398834,0.14660705626010895,0.12809155881404877,-0.15422965586185455,0.06475665420293808],[0.08809300512075424,0.20014256238937378,0.19776050746440887,0.031197186559438705,-0.1263914704322815,0.13272002339363098,-0.01673225499689579,-0.04487152025103569,0.1228337362408638,-0.06134318932890892,0.07974802702665329,-0.013096324168145657,0.10994137823581696,0.06760253757238388,0.21472187340259552,-0.13921546936035156,-0.037777259945869446,0.17383356392383575,0.02044885791838169,-0.03882322087883949],[-0.0899571031332016,-0.04503916949033737,0.21950887143611908,0.10026983916759491,-0.06343816965818405,-0.0501800961792469,-0.07671967148780823,-0.051921296864748,0.15280169248580933,-0.06807729601860046,0.04981398582458496,0.1052645817399025,0.16149196028709412,0.23262284696102142,-0.0084046246483922,-0.05516998469829559,0.1554749608039856,-0.04997248575091362,-0.1353376805782318,-0.031784359365701675]],"biases":[0.2309466302394867,0.23176909983158112,0.006039506755769253,-0.04582452028989792,0.034325167536735535,0.060863181948661804,-0.037289105355739594,0.23062437772750854,-0.012629291974008083,0.21982219815254211,0.11560121178627014,0.0838225856423378,0.20937983691692352,0.07229913026094437,0.1723819077014923,0.05511340871453285,-0.08421865105628967,0.0728258267045021,0.22014744579792023,0.24290831387043]},{"weights":[[-0.016309650614857674,0.22099360823631287,0.014388983137905598,0.09408249706029892,0.05644723027944565,-0.0053014918230473995,-0.10367810726165771,0.09073782712221146,0.0695868730545044,0.07552006095647812,0.05833907052874565,0.21802543103694916,0.2715725004673004,-0.013387773185968399,0.008847021497786045,0.2507416307926178,0.24726706743240356,0.11403673142194748,0.007561733480542898,0.29439520835876465],[0.1539859175682068,0.2546969950199127,0.09314606338739395,0.25954899191856384,-0.002391200978308916,0.24875278770923615,-0.02531512826681137,0.30818599462509155,0.2601303458213806,0.19134600460529327,-0.054405298084020615,0.1231418028473854,0.13009004294872284,0.3068561255931854,0.1555153727531433,0.2865983247756958,-0.10382595658302307,0.24817200005054474,0.14522245526313782,0.30779722332954407],[0.2421809881925583,0.2832231819629669,0.012961911037564278,0.22259394824504852,-0.047295842319726944,0.2952251732349396,-0.03248225152492523,-0.0828186497092247,0.21172718703746796,0.12141725420951843,-0.06349951028823853,0.09745188802480698,-0.014791562221944332,0.2726602852344513,0.21590152382850647,0.06955404579639435,0.16604013741016388,0.2733803987503052,0.13458657264709473,0.28214508295059204],[0.15805836021900177,0.0076203057542443275,0.0006769100436940789,0.013550837524235249,0.10807435214519501,0.32246309518814087,0.29341036081314087,-0.04586648941040039,0.17201752960681915,0.11726773530244827,0.26325905323028564,0.12478160113096237,0.26404374837875366,0.05293320491909981,0.2982666492462158,0.01894410140812397,0.20068715512752533,0.12761269509792328,0.06288738548755646,0.26374661922454834],[0.256385862827301,0.21102839708328247,0.09659912437200546,-0.06636596471071243,-0.008232527412474155,0.12642864882946014,-0.004613224416971207,0.011642725206911564,0.2573182284832001,0.1384422928094864,-0.05212431773543358,0.21648472547531128,-0.06894342601299286,0.10244081169366837,0.21595558524131775,0.10874541103839874,0.07686248421669006,0.011996273882687092,0.22978167235851288,0.17795602977275848],[-0.04331754520535469,0.09402552992105484,0.06580360978841782,0.24558453261852264,0.10366622358560562,0.1283608376979828,0.018956996500492096,0.08990001678466797,-0.0363442525267601,0.11590883880853653,0.11471080780029297,0.196336030960083,0.033815331757068634,-0.010596203617751598,0.035541899502277374,0.27729129791259766,-0.011689812876284122,-0.04754262790083885,0.04363398998975754,0.18185967206954956],[0.18981140851974487,0.1866299957036972,0.1161181703209877,-0.053833410143852234,0.14284557104110718,0.2869769334793091,0.09955479204654694,0.25397273898124695,-0.008640915155410767,0.007383452728390694,0.22811546921730042,0.1931174248456955,0.011327065527439117,0.2485121637582779,0.269074946641922,-0.09085195511579514,0.08867054432630539,0.14088252186775208,0.006796094588935375,0.008034743368625641],[0.20522110164165497,0.028034094721078873,0.20781175792217255,0.18275943398475647,0.24328695237636566,0.0018760947277769446,-0.059277985244989395,0.11517123878002167,-0.06899932771921158,0.17478743195533752,0.15811748802661896,-0.08116225153207779,-0.07611822336912155,0.034940727055072784,0.08386259526014328,0.15327122807502747,0.14580243825912476,0.0990329310297966,0.3052414059638977,0.03768105432391167],[0.02012433297932148,0.02283548004925251,-0.05887526273727417,-0.072394460439682,-0.08594785630702972,0.22935834527015686,0.0893716886639595,-0.0682336613535881,-0.021580662578344345,-0.014616565778851509,0.263630747795105,0.29357919096946716,0.27390608191490173,-0.01964578591287136,0.08081347495317459,0.2528240382671356,-0.11811016499996185,0.10057295113801956,0.22187989950180054,0.15289878845214844],[0.03615548461675644,0.3030538558959961,0.12697874009609222,-0.03380259871482849,-0.03267647698521614,0.18166683614253998,0.1696619838476181,0.3269057273864746,0.26407700777053833,0.00416564429178834,0.22374451160430908,0.14604996144771576,0.2940911054611206,0.004788189195096493,0.1627398133277893,0.28539609909057617,0.2612846791744232,0.21697582304477692,0.03634775057435036,0.2869533598423004],[0.052746810019016266,0.1286453902721405,-0.019455842673778534,-0.035029441118240356,0.25590312480926514,0.27913230657577515,0.19926011562347412,0.3112832009792328,0.05044546723365784,0.14483998715877533,0.3002733588218689,0.03692642226815224,0.120669886469841,0.06788250803947449,0.020627055317163467,0.23137184977531433,0.04200570657849312,0.23102514445781708,0.094707190990448,0.13594767451286316],[0.2997388243675232,-0.09263241291046143,0.27891603112220764,0.04788598418235779,0.2582549750804901,0.2932913899421692,0.24012619256973267,0.0002689558023121208,-0.08723894506692886,0.1756206452846527,0.16288378834724426,0.13438758254051208,0.03315051645040512,0.12857699394226074,-0.01623278111219406,0.1558062732219696,-0.02291678637266159,0.27040553092956543,0.10858593881130219,0.13556453585624695],[-0.13944385945796967,0.1522655338048935,0.1614508032798767,-0.14580588042736053,0.2203826904296875,-0.07376479357481003,-0.1694534569978714,0.18938791751861572,-0.13347487151622772,-0.012113927863538265,0.19592402875423431,-0.1106814369559288,-0.0905778557062149,0.006642557214945555,-0.15317285060882568,-0.11042966693639755,0.13089776039123535,-0.1565108448266983,-0.1155032217502594,0.06779883801937103],[-0.0042693098075687885,-0.0069498419761657715,0.170254185795784,0.14928209781646729,0.07187575846910477,-0.04468347877264023,-0.005463646724820137,0.15867263078689575,0.15250419080257416,0.2854169011116028,0.12100310623645782,0.1220313310623169,0.10517147183418274,0.12176897376775742,0.20937176048755646,0.07201523333787918,-0.1362665593624115,-0.11115540564060211,-0.08698741346597672,-0.09594633430242538],[0.02568838931620121,0.06718384474515915,0.28421905636787415,0.11670910567045212,0.12516309320926666,0.0996280089020729,0.10972123593091965,-0.0506095327436924,0.31718751788139343,0.06035112962126732,-0.017682937905192375,0.20423837006092072,0.04203719645738602,-0.0019114366732537746,0.20978409051895142,0.27063238620758057,0.2973995506763458,0.1846321076154709,0.025865836068987846,0.28261199593544006],[0.017098069190979004,0.008290051482617855,-0.06006550416350365,0.07561106234788895,0.006567419972270727,0.208452969789505,0.20286716520786285,0.28159189224243164,0.1106531172990799,0.1617526262998581,0.14194254577159882,0.0296647846698761,0.0733824372291565,0.24786849319934845,0.0691070556640625,-0.06468995660543442,0.026556435972452164,-0.030725104734301567,0.26744741201400757,0.045969072729349136],[0.13039813935756683,0.16611860692501068,0.08722683042287827,0.16675937175750732,-0.00239554513245821,0.1425921469926834,-0.020286470651626587,0.05746603384613991,0.05313274636864662,0.15820975601673126,0.2397109866142273,-0.00014012670726515353,0.016281401738524437,0.29055726528167725,0.23130328953266144,0.2541621923446655,-0.0010142060928046703,0.22863152623176575,0.11771640926599503,0.2814316749572754],[-0.07782912999391556,0.2056092619895935,-0.06563843786716461,-0.1090078055858612,-0.10023119300603867,0.09750308096408844,0.07518737018108368,0.2679659426212311,-0.096470907330513,0.06632649153470993,-0.0917026698589325,0.021104056388139725,-0.01425074227154255,0.13938605785369873,-0.10895626246929169,-0.08451741933822632,0.13220275938510895,0.24062249064445496,0.22326873242855072,0.23120711743831635],[0.1669682264328003,-0.10973161458969116,0.12359719723463058,0.1812756210565567,-0.11631102859973907,0.2257317304611206,-0.022489404305815697,-0.05479400232434273,0.13050007820129395,0.0168146975338459,0.22072811424732208,0.05179399251937866,-0.11743633449077606,-0.049008194357156754,0.10671859234571457,0.1397632360458374,0.23251108825206757,-0.00027591627440415323,0.05499202385544777,-0.10858938843011856],[0.23637858033180237,0.24781499803066254,-0.022036533802747726,-0.06382566690444946,0.12135963141918182,0.17346607148647308,0.1942353993654251,0.244815394282341,-0.07718313485383987,0.2214081585407257,0.13340839743614197,0.19323189556598663,0.14788594841957092,0.20918495953083038,0.30429837107658386,0.10778001695871353,0.23404528200626373,0.00922365952283144,0.30008041858673096,0.19279317557811737]],"biases":[0.2203880101442337,0.18182283639907837,0.07024285197257996,0.3194529414176941,0.047249242663383484,0.173904687166214,0.182532399892807,0.258005291223526,0.24280522763729095,0.1312399059534073,0.16304196417331696,0.31613779067993164,-0.1304306536912918,-0.03055199608206749,0.2797881066799164,0.09569568186998367,0.0777052640914917,0.15445461869239807,0.09330547600984573,0.314382404088974]},{"weights":[[0.28592756390571594,0.3260132372379303,0.2905639111995697,0.2968240976333618,0.3765573799610138,0.19769369065761566,0.23963487148284912,0.07658694684505463,0.2168606072664261,0.25715580582618713,0.3565017580986023,0.38405531644821167,0.15335328876972198,0.3055666387081146,0.37415096163749695,0.3753596544265747,0.374660849571228,0.20555010437965393,0.044459018856287,0.3570101261138916],[0.1764965057373047,0.2737867832183838,0.23946870863437653,0.2228388786315918,0.07880927622318268,0.06789564341306686,0.41684794425964355,0.04152413085103035,0.289927214384079,0.47517552971839905,0.4122995436191559,0.39562875032424927,-0.04588742181658745,0.16770219802856445,0.3475792706012726,0.29878851771354675,0.33012181520462036,0.362004816532135,0.1293247789144516,0.4782729744911194],[0.08734890073537827,0.4755590260028839,0.3386577367782593,0.4812421202659607,0.29862838983535767,0.19472768902778625,0.4816257059574127,0.18735626339912415,0.1076982319355011,0.36902886629104614,0.2774871587753296,0.11552508175373077,0.22378061711788177,0.18905270099639893,0.3654908835887909,0.41067636013031006,0.1467140018939972,0.13738133013248444,0.3272794187068939,0.34835490584373474],[0.09523696452379227,0.39113038778305054,0.4369181990623474,0.2993364632129669,0.11645497381687164,0.27511662244796753,0.2297573983669281,0.41918128728866577,0.14152775704860687,0.3880389630794525,0.18972742557525635,0.27097058296203613,0.280391663312912,0.0452338382601738,0.4085712432861328,0.39667394757270813,0.22143007814884186,0.15093283355236053,0.22317633032798767,0.5374264717102051],[0.44171959161758423,0.34955283999443054,0.4159852862358093,0.24769341945648193,0.3187752962112427,0.325194776058197,0.438279390335083,0.1653197705745697,0.08826910704374313,0.3551616668701172,0.41935452818870544,0.1583355814218521,0.0799289122223854,0.3064703047275543,0.4326447546482086,0.09137215465307236,0.24357028305530548,0.025804150849580765,0.41449981927871704,0.2935936152935028],[0.37373268604278564,0.16104118525981903,0.3594869375228882,0.37929922342300415,0.15868502855300903,0.20260415971279144,0.10141120105981827,0.33165812492370605,0.2283770591020584,0.44790828227996826,0.2995882034301758,0.34312546253204346,0.20352531969547272,0.30572423338890076,0.19452908635139465,0.3072156608104706,0.3168695569038391,0.3368443250656128,0.2925020456314087,0.3025006651878357],[0.21188212931156158,0.3126932978630066,0.17601773142814636,0.4839968681335449,0.4792185425758362,0.22100351750850677,0.16515323519706726,0.2749338746070862,0.2998265027999878,0.5272923111915588,0.12777653336524963,0.46686992049217224,0.04197239130735397,0.1356198787689209,0.2928068935871124,0.14378345012664795,0.4633299708366394,0.19553570449352264,0.06059922277927399,0.40679845213890076],[0.3305959105491638,0.5050179362297058,0.28838080167770386,0.34063270688056946,0.35301586985588074,0.3638712763786316,0.170170396566391,0.43293312191963196,0.24703925848007202,0.444452702999115,0.40826886892318726,0.22500574588775635,0.03333137184381485,0.11920011788606644,0.10921622067689896,0.11704642325639725,0.3067740797996521,0.11394686996936798,0.0797044038772583,0.29552409052848816],[0.276235431432724,0.1760694831609726,0.19166289269924164,0.36732035875320435,0.14307022094726562,0.19326326251029968,0.3799717128276825,0.20035246014595032,0.27511414885520935,0.4323923885822296,0.37427300214767456,0.3171631693840027,0.11250980943441391,0.3334406316280365,0.4368440508842468,0.36967983841896057,0.37809038162231445,0.019742252305150032,0.26361536979675293,0.48606979846954346],[0.4044272005558014,0.13646140694618225,0.12902678549289703,0.45074406266212463,0.07202058285474777,0.2528308033943176,0.36062824726104736,0.12471742928028107,0.3358060121536255,0.3229588270187378,0.40162354707717896,0.1143391877412796,0.006799218710511923,0.31498482823371887,0.36395779252052307,0.342784583568573,0.38205090165138245,0.2451365888118744,0.2361750304698944,0.40258944034576416],[0.3277493417263031,0.4904167354106903,0.27757716178894043,0.5013489723205566,0.16257579624652863,0.3574514091014862,0.26761987805366516,0.37581494450569153,0.3821254074573517,0.4496857523918152,0.4280359447002411,0.3835720419883728,0.03346586599946022,0.14961105585098267,0.12452717870473862,0.09089323878288269,0.2046363800764084,0.21854792535305023,0.07803530246019363,0.22656331956386566],[0.2990022897720337,0.3027728796005249,0.47666335105895996,0.3932165205478668,0.2425622195005417,0.08670777082443237,0.10875986516475677,0.4280441403388977,0.1440623253583908,0.17879173159599304,0.30872324109077454,0.3765229880809784,0.11007626354694366,0.021990982815623283,0.46855974197387695,0.39339789748191833,0.3206033408641815,0.18040725588798523,0.13192379474639893,0.35045111179351807],[0.2121289223432541,0.5249430537223816,0.11146189272403717,0.2638107240200043,0.2506175935268402,0.2910054922103882,0.1380641907453537,0.3658541142940521,0.41275453567504883,0.14949671924114227,0.16324010491371155,0.29657161235809326,-0.008908860385417938,0.3662582039833069,0.34084582328796387,0.3550271987915039,0.17827248573303223,0.3764442205429077,0.22605206072330475,0.3678678274154663],[0.2907295823097229,0.4660088121891022,0.2631694972515106,0.3286472260951996,0.3150445818901062,0.06162329390645027,0.46991583704948425,0.31784728169441223,0.38541269302368164,0.2549402713775635,0.1494685411453247,0.31073036789894104,0.26249760389328003,0.03690587729215622,0.47435274720191956,0.30939361453056335,0.286876380443573,0.10844480991363525,0.05856424942612648,0.3959910571575165],[0.04187534749507904,0.35501086711883545,0.42623841762542725,0.26328545808792114,0.2751753628253937,0.18974263966083527,0.3526671826839447,0.11593721061944962,0.12068307399749756,0.25969550013542175,0.4424762427806854,0.422900527715683,0.14104986190795898,0.38675105571746826,0.2864486277103424,0.16516761481761932,0.14040841162204742,0.3415118455886841,0.15439462661743164,0.4448682367801666],[0.21845807135105133,0.491516649723053,0.2022733986377716,0.2313157618045807,0.2975013852119446,0.17117473483085632,0.19760268926620483,0.4639643430709839,0.2744942009449005,0.3942532241344452,0.4312995970249176,0.42328137159347534,0.13778617978096008,0.11275970190763474,0.23930010199546814,0.25818896293640137,0.17426864802837372,0.3397113084793091,0.33702948689460754,0.27360859513282776],[0.22996720671653748,0.4089564085006714,0.29757413268089294,0.23753151297569275,0.19772984087467194,0.42502081394195557,0.22639140486717224,0.11786414682865143,0.2774334251880646,0.47945788502693176,0.28877708315849304,0.27557462453842163,0.11695244908332825,0.1157919317483902,0.22242705523967743,0.40993836522102356,0.2550758421421051,0.090605728328228,0.18311375379562378,0.33439183235168457]],"biases":[0.4062296152114868,0.5547942519187927,0.36766156554222107,0.39146119356155396,0.31709200143814087,0.3798544704914093,0.31377220153808594,0.4864761233329773,0.20626646280288696,0.47405344247817993,0.2967761158943176,0.48191314935684204,0.5261683464050293,0.3406354784965515,0.5438517332077026,0.29424136877059937,0.6141030788421631]}],"inputLookup":{"IntroductionToComputing":0,"EnglishComprehension":1,"CalculusAndAnalyticalGeometry":2,"Physics":3,"Economics":4,"IntroductionToBusiness":5,"GeneralMathematics":6,"PakistanStudies":7,"IntroductionToELearning":8},"inputLookupLength":9,"outputLookup":{"BusinessAndTechnicalEnglishWriting":0,"DiscreteMathematics":1,"LinearAlgebra":2,"PrinciplesOfMarketing":3,"PrinciplesOfManagement":4,"SetsAndLogic":5,"DataStructures":6,"ObjectOrientedProgramming":7,"DataCommunication":8,"ProfessionalPractices":9,"FinancialManagement":10,"HumanResourceManagement":11,"DatabaseManagementSystems":12,"SoftwareEngineeringI":13,"OperatingSystems":14,"ComputerNetworks":15,"StatisticsAndProbability":16},"outputLookupLength":17,"options":{"inputSize":0,"outputSize":0,"binaryThresh":0.5,"hiddenLayers":[20,20,20]},"trainOpts":{"activation":"sigmoid","iterations":20000,"errorThresh":0.005,"log":false,"logPeriod":10,"leakyReluAlpha":0.01,"learningRate":0.3,"momentum":0.1,"callbackPeriod":10,"timeout":"Infinity","beta1":0.9,"beta2":0.999,"epsilon":1e-8}}