{
  "type": "NeuralNetwork",
  "sizes": [3, 20, 20, 20, 10],
  "layers": [
    { "weights": [], "biases": [] },
    {
      "weights": [
        [-10.202436447143555, -0.6175199151039124, -0.23367561399936676],
        [-12.749855995178223, -2.4204461574554443, -12.00337028503418],
        [-10.276859283447266, -16.867124557495117, -6.565177917480469],
        [7.764162540435791, -16.895721435546875, -3.712545394897461],
        [3.3999409675598145, 18.32951545715332, -2.631709337234497],
        [-2.2489490509033203, -0.38780251145362854, -12.355073928833008],
        [-9.335164070129395, -0.3470940589904785, -7.364673137664795],
        [-4.5004119873046875, -14.226468086242676, 7.365205764770508],
        [-16.105182647705078, 10.71674633026123, 4.469924449920654],
        [-11.967985153198242, 10.22210693359375, 2.5434248447418213],
        [-25.884119033813477, -0.05684635043144226, -0.4972497224807739],
        [-7.106040000915527, -10.355629920959473, -2.7987399101257324],
        [-10.581314086914062, 12.49405288696289, -7.746286869049072],
        [-9.60053539276123, -14.18043041229248, -1.4069195985794067],
        [-15.745155334472656, 8.155153274536133, -0.40966036915779114],
        [1.7426763772964478, -3.9794270992279053, -19.211877822875977],
        [-18.084774017333984, -2.0663444995880127, -11.956445693969727],
        [-7.338672161102295, -18.963706970214844, 2.3324942588806152],
        [7.937225818634033, 1.3027986288070679, -9.500774383544922],
        [4.158038139343262, -18.525588989257812, 3.9663374423980713]
      ],
      "biases": [
        1.7726411819458008, 4.499966144561768, 9.314745903015137,
        -1.1583728790283203, -15.686155319213867, 5.027042865753174,
        10.612765312194824, 1.3739726543426514, -5.4014458656311035,
        -0.07923007756471634, 3.38889479637146, 11.355653762817383,
        -0.3353233337402344, 8.221490859985352, -4.856043338775635,
        16.777023315429688, 11.511453628540039, 10.72428035736084,
        -2.8969359397888184, -2.08162784576416
      ]
    },
    {
      "weights": [
        [
          0.8285952210426331, 3.019873857498169, -4.500373363494873,
          -8.244085311889648, 4.070015907287598, -1.8275001049041748,
          -4.306610584259033, -14.84941291809082, 2.8663225173950195,
          1.93460214138031, 1.8233904838562012, 0.06457845121622086,
          -0.8178530335426331, -3.7932522296905518, 3.545973539352417,
          3.225327491760254, -4.602387428283691, 0.022059740498661995,
          -0.028674744069576263, 1.628663420677185
        ],
        [
          0.39175912737846375, 2.317824125289917, -2.1606338024139404,
          -2.7462339401245117, 10.317279815673828, -1.4112061262130737,
          1.7893410921096802, -10.098841667175293, -0.47423362731933594,
          0.0008590067154727876, 0.6101771593093872, -3.1842238903045654,
          -0.28235626220703125, -1.1621689796447754, -1.1792335510253906,
          -0.5206100940704346, 1.4121140241622925, -1.0187395811080933,
          -0.11856510490179062, -7.197486877441406
        ],
        [
          -1.860062599182129, -1.9359902143478394, -1.7722113132476807,
          -1.834563136100769, 11.957352638244629, 0.8754602074623108,
          4.271364212036133, -6.460113048553467, -8.477561950683594,
          0.010020879097282887, -2.576249361038208, -11.902177810668945,
          1.5144938230514526, -3.5529308319091797, 1.1233093738555908,
          -1.3541312217712402, -8.138517379760742, -4.672202110290527,
          -9.67083740234375, -3.1058762073516846
        ],
        [
          0.4840952754020691, 3.4541540145874023, -0.3886702060699463,
          -0.3495076894760132, -2.3065662384033203, 0.8334217667579651,
          -4.803460597991943, 2.924023389816284, 0.2021474391222,
          1.0348743200302124, 0.8444387912750244, 9.578277587890625,
          -6.220658779144287, 4.352736949920654, 0.7801242470741272,
          -1.1101175546646118, 0.7611010670661926, 0.9820271730422974,
          3.3870880603790283, 2.4002938270568848
        ],
        [
          1.1295828819274902, 1.3684812784194946, 1.0625284910202026,
          -3.3229854106903076, -2.8128445148468018, -6.234658241271973,
          -9.280765533447266, 1.6251449584960938, 3.4064040184020996,
          2.7705156803131104, -1.6866332292556763, 1.1102522611618042,
          1.8186427354812622, 9.271419525146484, 13.240185737609863,
          -10.297080039978027, 2.8442513942718506, -0.5306101441383362,
          -1.6887695789337158, 6.105332851409912
        ],
        [
          2.6987056732177734, 5.1634521484375, 8.766525268554688,
          2.1671159267425537, -2.024430990219116, -2.253751277923584,
          0.8688143491744995, -0.8960546255111694, 2.1459875106811523,
          -2.8811051845550537, -3.627718925476074, 2.9476020336151123,
          -1.7566264867782593, -0.3201235830783844, 2.5910511016845703,
          -1.6019545793533325, 6.492234230041504, 3.0253615379333496,
          -1.0077186822891235, -6.523621559143066
        ],
        [
          -0.9720999598503113, 8.865300178527832, 1.1863409280776978,
          -1.2715033292770386, 2.898658275604248, 0.6678429245948792,
          3.4196534156799316, -0.7265600562095642, 7.127474784851074,
          4.083385467529297, -0.4675748646259308, 4.607918739318848,
          -0.4813987612724304, -0.9611488580703735, 2.3252577781677246,
          -0.12920057773590088, 1.7363749742507935, 0.2691197395324707,
          -2.0843796730041504, 3.873579978942871
        ],
        [
          2.236905097961426, -6.564874172210693, -1.3094894886016846,
          -10.808871269226074, -10.822714805603027, -7.7949442863464355,
          7.237077713012695, 4.47493839263916, 8.93250846862793,
          -2.9491848945617676, 2.0648303031921387, -1.6481000185012817,
          2.4722042083740234, -5.502906799316406, 7.173645973205566,
          -8.950368881225586, 1.6224637031555176, -0.5872848629951477,
          2.958881378173828, -0.7130707502365112
        ],
        [
          4.9672651290893555, -3.207610845565796, -2.6146864891052246,
          8.06650447845459, -4.724717140197754, 9.628217697143555,
          -0.232818141579628, -0.31810587644577026, 2.1464977264404297,
          -2.1948392391204834, 10.273316383361816, -4.724643230438232,
          -4.216028690338135, -0.705299437046051, 7.05961275100708,
          -5.812179088592529, 5.741376876831055, 7.2781548500061035,
          -7.331336975097656, -0.03658438101410866
        ],
        [
          -3.4750561714172363, -2.723649740219116, -4.027915000915527,
          9.137060165405273, -1.085500955581665, 2.609980583190918,
          -5.028636455535889, -0.28108587861061096, -2.4697017669677734,
          -12.038496971130371, -0.4302666485309601, -7.6109619140625,
          -10.574639320373535, -7.296472072601318, -3.146174430847168,
          -4.796939373016357, -3.664238929748535, -9.896880149841309,
          6.975566387176514, 8.40573787689209
        ],
        [
          6.758203029632568, 5.93137788772583, 0.2695305645465851,
          -1.370430588722229, 0.7664054036140442, 8.497565269470215,
          2.0201241970062256, -2.9729061126708984, 4.20631217956543,
          0.9336718320846558, -5.340018272399902, 0.5973185896873474,
          2.3781235218048096, -1.512444019317627, 1.2394177913665771,
          0.294180691242218, -1.5017199516296387, 0.5351688265800476,
          -9.161742210388184, -1.4667401313781738
        ],
        [
          -0.446922242641449, 2.642470121383667, -4.863792896270752,
          -4.238058090209961, -1.307521939277649, -2.3737540245056152,
          -2.0696260929107666, 2.792973279953003, 2.4768338203430176,
          1.1505370140075684, -0.8518332839012146, -1.8812034130096436,
          0.483294278383255, -0.9084612727165222, -4.568025588989258,
          -2.09468674659729, -0.4018281400203705, 2.1555724143981934,
          -1.879174828529358, 0.5527569651603699
        ],
        [
          -2.75831937789917, -2.4258968830108643, -4.356810092926025,
          1.0428659915924072, 1.4696894884109497, -10.006402969360352,
          -11.250699996948242, 1.3227410316467285, 1.5674774646759033,
          -0.743032693862915, -0.5135926604270935, -4.596083164215088,
          -9.016548156738281, -3.8422536849975586, -2.755286455154419,
          -3.1904735565185547, -3.672764539718628, 2.701378345489502,
          2.1002728939056396, 5.1416802406311035
        ],
        [
          0.08784260600805283, -3.536592721939087, 1.0235686302185059,
          -5.402467250823975, 1.960581660270691, -2.246428966522217,
          -4.601407527923584, 4.720477104187012, 2.901196241378784,
          0.8429363369941711, 1.8389861583709717, 4.271935939788818,
          2.7653040885925293, 2.3214523792266846, 1.6816961765289307,
          -4.560451030731201, -4.651652812957764, -4.881405353546143,
          -10.315067291259766, -3.1341071128845215
        ],
        [
          -0.21448923647403717, 1.9262669086456299, 4.2508368492126465,
          -6.689369201660156, -1.216493844985962, -3.749040365219116,
          -3.356473207473755, 1.1853277683258057, -1.6611747741699219,
          -2.983968734741211, 6.282299041748047, -3.1087067127227783,
          -4.855192184448242, 3.8605711460113525, -3.0748279094696045,
          -1.9786096811294556, -2.58441424369812, 13.34395694732666,
          -15.72484016418457, 3.367854118347168
        ],
        [
          3.3744590282440186, 2.402740240097046, -2.0693204402923584,
          -16.356910705566406, -4.825957298278809, 4.483388900756836,
          8.451864242553711, 6.973195552825928, -1.837194800376892,
          -0.05735737457871437, -1.8345258235931396, 5.675133228302002,
          8.253982543945312, -0.6987990736961365, 1.076246738433838,
          1.0719844102859497, 1.7186579704284668, -5.106440544128418,
          -3.976677179336548, -9.685931205749512
        ],
        [
          -2.5054519176483154, 3.3100333213806152, 1.4730231761932373,
          2.2979843616485596, 1.7215101718902588, 4.005265235900879,
          1.5889390707015991, -3.8254549503326416, -4.083070278167725,
          -2.1034047603607178, 1.5689244270324707, 0.8982132077217102,
          -0.0337350107729435, -0.9510549306869507, 4.261712551116943,
          0.7359556555747986, 0.8943193554878235, -2.9845871925354004,
          -0.10461591929197311, -0.9996211528778076
        ],
        [
          3.8164384365081787, 4.941761493682861, 7.4923272132873535,
          3.495349645614624, 2.354124069213867, -4.955367565155029,
          -3.422600507736206, -2.0015869140625, -1.4469013214111328,
          2.9960219860076904, 4.806402206420898, 4.393024921417236,
          6.624988555908203, 5.8476667404174805, -0.06139872595667839,
          -12.170174598693848, 10.255492210388184, -5.8848185539245605,
          1.3738657236099243, 6.2070746421813965
        ],
        [
          2.8144378662109375, -7.772510051727295, -2.5381410121917725,
          -1.967979907989502, 14.332720756530762, -3.1226730346679688,
          -15.988143920898438, 0.8346958756446838, 4.0516510009765625,
          1.494238257408142, 12.94424057006836, -8.316365242004395,
          12.164543151855469, -3.3277883529663086, 6.403395175933838,
          -1.38236403465271, 0.13728131353855133, -3.040050983428955,
          1.5238083600997925, -2.2688395977020264
        ],
        [
          0.7899860143661499, 0.05091623216867447, -11.619318008422852,
          -1.2678829431533813, 6.128529071807861, -4.839338779449463,
          7.249337673187256, -0.2924162745475769, 5.6563544273376465,
          -2.452357292175293, 1.7432832717895508, -0.23755788803100586,
          1.5706740617752075, -0.3335224986076355, 2.2900946140289307,
          -4.139044761657715, 1.5954760313034058, -5.7499871253967285,
          -4.772928237915039, -2.4722578525543213
        ]
      ],
      "biases": [
        -1.5406997203826904, -0.4006859064102173, -0.6492522358894348,
        -11.990309715270996, 0.7004727125167847, -4.476593971252441,
        -11.452025413513184, 4.231552600860596, -11.610615730285645,
        0.23818467557430267, -2.294440507888794, 1.5064390897750854,
        1.0481860637664795, -0.7352315783500671, -6.159351825714111,
        -14.529444694519043, -5.3838114738464355, -6.935743808746338,
        -11.764309883117676, 1.006899356842041
      ]
    },
    {
      "weights": [
        [
          -1.3092232942581177, 0.4886000156402588, -0.018889842554926872,
          -2.7924818992614746, -0.04614521935582161, -0.5397037863731384,
          -8.854012489318848, -1.3812075853347778, -0.9642515778541565,
          5.456177711486816, -2.3130147457122803, -0.4595358967781067,
          -1.787627935409546, 0.6903548836708069, 0.3595687448978424,
          0.1288919299840927, 0.4201800525188446, -0.19233602285385132,
          0.36233070492744446, 0.5384157299995422
        ],
        [
          -0.058471307158470154, -1.5900592803955078, -3.3611936569213867,
          6.09718656539917, -0.31762734055519104, 1.245898962020874,
          -10.690546035766602, 0.9063864946365356, 0.5133379101753235,
          5.107227325439453, -3.7535858154296875, -2.0811526775360107,
          1.1379212141036987, 0.39939025044441223, -6.341104030609131,
          -3.698556900024414, -0.44790118932724, 8.373123168945312,
          -0.6876099109649658, 0.5063892602920532
        ],
        [
          0.046653278172016144, -0.15604884922504425, -0.08610819280147552,
          -0.9279761910438538, -6.779829502105713, 0.397503525018692,
          0.07208936661481857, -1.5379775762557983, -2.7248716354370117,
          -4.357357978820801, 0.9948685765266418, -13.9125337600708,
          2.937974691390991, 1.692864179611206, 0.3352436423301697,
          -0.16897311806678772, 2.001835823059082, 1.453795075416565,
          -0.8538818359375, 0.6539022922515869
        ],
        [
          2.0234107971191406, -4.217280387878418, -6.686569690704346,
          -5.564975261688232, 13.79998779296875, -6.149622917175293,
          -0.5872319936752319, -4.689804553985596, -0.9918924570083618,
          5.121849060058594, -2.8388960361480713, 4.193359851837158,
          -0.21846283972263336, -7.411900997161865, 1.8540112972259521,
          -1.0873937606811523, -5.597952842712402, -4.162054061889648,
          4.738741397857666, 15.917520523071289
        ],
        [
          -1.9648648500442505, -3.1442677974700928, 2.7372379302978516,
          -5.14453649520874, 2.2118866443634033, 2.4508376121520996,
          4.703915596008301, -10.183272361755371, -1.522835612297058,
          4.4928202629089355, 0.889492392539978, -0.4409252107143402,
          5.211563587188721, -3.668987989425659, 1.3139233589172363,
          -4.501514911651611, 2.772148370742798, -4.539063453674316,
          -11.266901969909668, 4.408341407775879
        ],
        [
          4.850635528564453, 6.909832954406738, 1.093324065208435,
          5.836453437805176, -5.487186908721924, 0.7503859400749207,
          1.4326715469360352, 11.611221313476562, -2.374624252319336,
          0.7412344217300415, -1.9297436475753784, -3.445939064025879,
          16.904848098754883, -5.035053253173828, 1.4405437707901,
          -14.050647735595703, 1.8055416345596313, 3.3349483013153076,
          0.8638747334480286, -7.815042972564697
        ],
        [
          1.0443496704101562, 0.9791602492332458, 1.7141088247299194,
          -0.8610067367553711, 2.0213441848754883, -1.876122236251831,
          1.048866868019104, 0.25894126296043396, -0.7619792222976685,
          -8.264150619506836, 0.46712422370910645, 0.6374785304069519,
          -1.4227192401885986, -2.3587563037872314, -0.7765610218048096,
          0.2541637122631073, 4.129591941833496, -3.0563414096832275,
          2.676600933074951, 2.24906849861145
        ],
        [
          0.35934045910835266, 1.0030372142791748, -0.8130290508270264,
          -0.0666905865073204, 0.4408518970012665, 2.8014419078826904,
          1.189713716506958, -0.6926500201225281, 2.3057875633239746,
          0.5091513395309448, -19.50604820251465, 3.214566707611084,
          1.282908320426941, -3.3072164058685303, -1.2340949773788452,
          0.8382335305213928, 0.6910324096679688, -6.311085224151611,
          -0.19425898790359497, 1.0853865146636963
        ],
        [
          4.34906530380249, -4.673977851867676, 0.8012519478797913,
          -3.3884122371673584, 1.2785645723342896, -0.16593745350837708,
          -4.151233196258545, -4.477935791015625, -1.6325246095657349,
          8.571908950805664, -0.18636134266853333, 1.3679918050765991,
          4.796039581298828, -8.44915771484375, -0.8406758904457092,
          -6.182281017303467, 3.4597818851470947, -0.5222128629684448,
          -0.9750244617462158, 2.582005739212036
        ],
        [
          0.9095321893692017, 0.6975048184394836, -0.7758268117904663,
          2.7640199661254883, 1.811293601989746, 1.3899306058883667,
          -3.5944557189941406, -8.974082946777344, 3.3052470684051514,
          -3.3420844078063965, -8.546834945678711, -0.7466906309127808,
          -0.24813435971736908, -1.5195165872573853, 2.364286422729492,
          -5.106922626495361, 6.257650852203369, 11.83127212524414,
          0.980685830116272, 1.3593683242797852
        ],
        [
          -0.6185667514801025, 0.17486172914505005, -0.3854258954524994,
          -2.1816959381103516, 1.5046968460083008, -1.0658138990402222,
          -4.553766250610352, -1.5890523195266724, -8.514352798461914,
          -0.751370370388031, 6.309535503387451, 4.436478137969971,
          -1.0541576147079468, -4.035151481628418, 5.250119686126709,
          -0.04225848987698555, -2.431577682495117, 0.7327976226806641,
          0.21562114357948303, 0.06546711176633835
        ],
        [
          0.694502055644989, -1.278704285621643, 10.258358001708984,
          9.326401710510254, -7.877640247344971, -2.3769702911376953,
          8.341605186462402, 9.545337677001953, -5.752383232116699,
          6.625291347503662, -1.8710745573043823, -21.529146194458008,
          -5.921074390411377, -3.1689248085021973, -10.602761268615723,
          0.282103955745697, 1.737028956413269, -2.964782476425171,
          -10.741800308227539, -10.768798828125
        ],
        [
          7.246545314788818, -6.198117733001709, 5.0044779777526855,
          4.674202919006348, -2.001192092895508, -12.3115234375,
          -1.38910973072052, 2.701340675354004, -0.4875592291355133,
          10.950472831726074, -0.819625973701477, -2.296541452407837,
          4.315084934234619, 4.787635326385498, -5.452204704284668,
          -3.9293622970581055, 5.322033405303955, -3.7952895164489746,
          -0.8858129382133484, -3.685170888900757
        ],
        [
          -0.9694781303405762, -0.036063261330127716, 0.6039135456085205,
          -0.7154099345207214, 0.9207038283348083, -1.5035778284072876,
          -0.41992297768592834, -1.2301889657974243, -0.040235381573438644,
          -5.716324806213379, 0.4212016761302948, -1.5132290124893188,
          -2.435504198074341, -10.45695686340332, 1.6845626831054688,
          -0.08301045000553131, -0.62249755859375, 0.4129874110221863,
          1.2856884002685547, -0.6594672203063965
        ],
        [
          -1.7594692707061768, -2.8844919204711914, -0.03403496742248535,
          -1.0182535648345947, 7.77704381942749, -1.150215983390808,
          -4.372834205627441, 0.41393718123435974, 11.861746788024902,
          -1.6504861116409302, 4.536258697509766, -8.153660774230957,
          3.7761106491088867, 5.095948219299316, 0.5516616702079773,
          -15.384441375732422, -10.014952659606934, -0.7246040105819702,
          -3.484135150909424, 3.9709880352020264
        ],
        [
          -5.714783191680908, -2.3708972930908203, 1.7410930395126343,
          3.4891014099121094, -6.039042949676514, 4.501097202301025,
          -4.81592321395874, 1.2017722129821777, 3.978281021118164,
          1.268347144126892, 3.4925591945648193, -0.9449589252471924,
          1.2682043313980103, 4.424065589904785, -3.8313727378845215,
          -3.9728832244873047, 4.725613594055176, 1.2199205160140991,
          4.7859907150268555, 1.5454492568969727
        ],
        [
          -8.33006763458252, -8.23689079284668, 13.789813995361328,
          -1.440124273300171, 3.1103017330169678, 0.03771594911813736,
          -1.8503241539001465, -0.37397947907447815, 0.9310253262519836,
          -3.0083181858062744, -1.5616258382797241, -2.883030414581299,
          -0.3380686640739441, -10.635040283203125, 0.7923155426979065,
          0.7754599452018738, -0.81062912940979, 0.9553481936454773,
          -3.3083767890930176, -0.27521929144859314
        ],
        [
          0.049076683819293976, -3.685833215713501, 2.952479124069214,
          1.857239007949829, 0.04642968997359276, -6.674246311187744,
          -2.2033627033233643, 1.973254680633545, 2.5393011569976807,
          1.9607406854629517, -0.6399638652801514, 3.128856658935547,
          -3.19431734085083, 2.202427625656128, -2.3173704147338867,
          1.3028286695480347, -4.909998893737793, -5.129642486572266,
          1.4120467901229858, -1.4929306507110596
        ],
        [
          1.4091893434524536, -4.055663585662842, -7.101783752441406,
          10.463997840881348, 4.078913688659668, 2.1934471130371094,
          0.7887983918190002, -0.6389679908752441, -7.064998626708984,
          -10.811257362365723, 3.7531824111938477, 3.662191390991211,
          3.4881863594055176, -2.7524337768554688, -9.314148902893066,
          -0.8237127065658569, -5.464673042297363, 3.5352511405944824,
          -14.023222923278809, -0.6511498093605042
        ],
        [
          2.5613574981689453, -6.769392967224121, -5.42712926864624,
          1.0799331665039062, 1.2332278490066528, -0.8277118802070618,
          1.406381368637085, -0.0905977338552475, -0.5950202345848083,
          -0.07307956367731094, -0.7272119522094727, 0.9094550013542175,
          -1.9507741928100586, -3.751026153564453, 2.6610281467437744,
          0.5122293829917908, -3.0728979110717773, 0.005652714055031538,
          -4.485188961029053, -0.6219572424888611
        ]
      ],
      "biases": [
        -0.3308718502521515, -0.11035925894975662, -2.0424838066101074,
        -10.862069129943848, -4.665310382843018, -7.025004863739014,
        -7.094687461853027, -1.6365501880645752, -4.003651142120361,
        -6.307566165924072, 0.029658259823918343, -4.223654747009277,
        -5.612122535705566, -1.4791936874389648, -4.183197498321533,
        -3.22849440574646, 0.9269396066665649, -0.6203221678733826,
        -6.565779685974121, -0.4937593936920166
      ]
    },
    {
      "weights": [
        [
          5.555931568145752, 2.2057578563690186, 0.18427899479866028,
          0.05129711702466011, 0.36590248346328735, -0.30495306849479675,
          0.5009413361549377, 3.978043794631958, 3.0720901489257812,
          0.9806097745895386, 2.6855366230010986, 1.5637985467910767,
          4.043804168701172, 1.519866943359375, 0.44479164481163025,
          0.7181423902511597, -0.8034910559654236, 0.3522174060344696,
          -0.9651874303817749, -0.5459297895431519
        ],
        [
          0.5460636019706726, -1.5461195707321167, -0.31954893469810486,
          2.0277717113494873, 0.1575746387243271, 0.11608283966779709,
          4.66192626953125, -0.25125059485435486, -0.4773019850254059,
          -10.357527732849121, -1.0051419734954834, -1.2021468877792358,
          0.940035879611969, 0.02502422034740448, -1.503474473953247,
          -0.8309179544448853, -1.9913774728775024, -0.3204667866230011,
          -0.5683180093765259, -1.0817140340805054
        ],
        [
          4.1076579093933105, 2.4654695987701416, 0.16259102523326874,
          0.5017156004905701, 0.05313846841454506, 0.8614901900291443,
          0.10043585300445557, 2.316295862197876, 4.7273945808410645,
          -1.174118161201477, 2.4283909797668457, 1.3565171957015991,
          1.8030815124511719, 4.587924957275391, -0.3668557405471802,
          0.6405004858970642, -0.6389886140823364, 0.6583523750305176,
          -0.8592861890792847, -0.8693323731422424
        ],
        [
          0.2640206217765808, -1.5045571327209473, -0.013473552651703358,
          0.7682987451553345, -3.2887678146362305, 0.5443894863128662,
          3.9376068115234375, -1.9245840311050415, 2.355320930480957,
          -12.220727920532227, -0.8011631369590759, -0.22665926814079285,
          -0.3651098608970642, -1.1807241439819336, -0.5299341678619385,
          -0.8169735074043274, -1.154516577720642, -0.41312575340270996,
          -0.5998815894126892, -1.5580158233642578
        ],
        [
          0.03738332912325859, -2.7749698162078857, -0.2769204080104828,
          0.09694097191095352, -1.0785152912139893, -0.6786744594573975,
          3.7839884757995605, 0.8468914031982422, 0.06776710599660873,
          -7.846986770629883, -1.0111662149429321, -1.4182361364364624,
          2.4956729412078857, 1.7582378387451172, -0.426349014043808,
          -1.4823755025863647, -1.1110076904296875, 0.17836757004261017,
          -0.06741902232170105, -2.0362110137939453
        ],
        [
          0.717573881149292, -2.7575435638427734, 0.0035778479650616646,
          0.02943030744791031, 0.06617952138185501, -0.8468082547187805,
          3.248093366622925, 1.1398907899856567, -2.2371907234191895,
          -5.823161602020264, -0.6249866485595703, -2.227254867553711,
          3.6280760765075684, -3.9354703426361084, -0.3856421709060669,
          -1.4162044525146484, -0.47795984148979187, -0.1033812165260315,
          -0.7007153034210205, -1.864687442779541
        ],
        [
          -0.8924696445465088, -0.5894266366958618, -3.5890328884124756,
          2.08829665184021, -2.5190515518188477, 0.15727348625659943,
          0.141545832157135, 1.1304371356964111, 1.7396634817123413,
          -1.3372594118118286, 0.7938249707221985, -1.7827990055084229,
          -0.7043498754501343, -4.364312648773193, 3.1784346103668213,
          -0.8674094676971436, 1.2668055295944214, 1.4414966106414795,
          1.3346978425979614, 0.28493693470954895
        ],
        [
          -1.3223062753677368, -1.0663985013961792, -4.826175689697266,
          1.948488712310791, 1.8162661790847778, 0.29064813256263733,
          -0.5129920840263367, 0.4610850214958191, 0.255744993686676,
          -0.5711294412612915, 0.3560556173324585, -2.0104970932006836,
          1.0672454833984375, -1.3468042612075806, 2.261497974395752,
          -0.9851751327514648, 1.1062408685684204, 2.3018035888671875,
          1.3755567073822021, -0.16400425136089325
        ],
        [
          5.556593418121338, 2.9073479175567627, 0.4432072937488556,
          -0.20620524883270264, -0.43340131640434265, 0.36932772397994995,
          0.5853143930435181, 2.3879213333129883, 2.525045394897461,
          -0.09559662640094757, 2.8542287349700928, 1.623838186264038,
          5.015560626983643, 2.0499892234802246, 0.76048344373703,
          0.6170920133590698, -1.2568058967590332, 0.20317216217517853,
          -1.4811619520187378, -0.21580080687999725
        ],
        [
          6.0395002365112305, 2.1224939823150635, 0.01174886617809534,
          -0.6306335926055908, 0.38418546319007874, 0.33414873480796814,
          0.32543888688087463, 3.010248899459839, 0.35412362217903137,
          0.01205431204289198, 2.8527491092681885, 2.087172031402588,
          5.591355800628662, -0.08498877286911011, 0.894855260848999,
          0.4438554644584656, -0.1344972401857376, 0.20166130363941193,
          -1.0260844230651855, -0.7622596621513367
        ]
      ],
      "biases": [
        -3.3416545391082764, 1.654937744140625, -3.241837978363037,
        1.6097828149795532, 1.921301245689392, 1.9042772054672241,
        -0.3763163983821869, -0.12149566411972046, -3.401939868927002,
        -3.2346160411834717
      ]
    }
  ],
  "inputLookup": {
    "ProgrammingFundamentals": 0,
    "IntroductionToComputing": 1,
    "Calculus1": 2
  },
  "inputLookupLength": 3,
  "outputLookup": {
    "WebDevelopment": 0,
    "MobileAppDevelopment": 1,
    "SoftwareEngineering": 2,
    "DatabaseManagement": 3,
    "OperatingSystems": 4,
    "ComputerNetworks": 5,
    "ArtificialIntelligence": 6,
    "MachineLearning": 7,
    "DataStructures": 8,
    "Algorithms": 9
  },
  "outputLookupLength": 10,
  "options": {
    "inputSize": 0,
    "outputSize": 0,
    "binaryThresh": 0.5,
    "hiddenLayers": [20, 20, 20]
  },
  "trainOpts": {
    "activation": "sigmoid",
    "iterations": 20000,
    "errorThresh": 0.005,
    "log": false,
    "logPeriod": 10,
    "leakyReluAlpha": 0.01,
    "learningRate": 0.3,
    "momentum": 0.1,
    "callbackPeriod": 10,
    "timeout": "Infinity",
    "beta1": 0.9,
    "beta2": 0.999,
    "epsilon": 1e-8
  }
}
